Language model created by QuickLM on Fri Jun 16 06:58:17 EDT 2017
Copyright (c) 1996-2010 Carnegie Mellon University and Alexander I. Rudnicky

The model is in standard ARPA format, designed by Doug Paul while he was at MITRE.

The code that was used to produce this language model is available in Open Source.
Please visit http://www.speech.cs.cmu.edu/tools/ for more information

The (fixed) discount mass is 0.5. The backoffs are computed using the ratio method.
This model based on a corpus of 89 sentences and 89 words

\data\
ngram 1=89
ngram 2=174
ngram 3=87

\1-grams:
-0.7782 </s> -0.3010
-0.7782 <s> -0.2218
-2.7275 ABRAHAM -0.2218
-2.7275 AFTERNOON -0.2218
-2.7275 ALARM -0.2218
-2.7275 ALEXA -0.2218
-2.7275 APPS -0.2218
-2.7275 ART -0.2218
-2.7275 ATOM -0.2218
-2.7275 B -0.2218
-2.7275 CAPTURE -0.2218
-2.7275 CHECK -0.2218
-2.7275 COLORS -0.2218
-2.7275 CONNECTED -0.2218
-2.7275 CORTANA -0.2218
-2.7275 DESKTOP -0.2218
-2.7275 DO -0.2218
-2.7275 DOWN -0.2218
-2.7275 E-MAIL -0.2218
-2.7275 ECHO -0.2218
-2.7275 EVENING -0.2218
-2.7275 FILES -0.2218
-2.7275 FIND -0.2218
-2.7275 FIVE -0.2218
-2.7275 FOR -0.2218
-2.7275 FRANZ -0.2218
-2.7275 GO -0.2218
-2.7275 GOODBYE -0.2218
-2.7275 GOOGLE -0.2218
-2.7275 HIDDEN -0.2218
-2.7275 HISTORY -0.2218
-2.7275 HOUR -0.2218
-2.7275 IN -0.2218
-2.7275 INVERT -0.2218
-2.4265 IS -0.2218
-2.7275 KEVIN -0.2218
-2.7275 KIFT -0.2218
-2.7275 LED -0.2218
-2.7275 LEFT -0.2218
-2.7275 LIGHTS -0.2218
-2.7275 ME -0.2218
-2.7275 MINUTES -0.2218
-2.7275 MISTER -0.2218
-2.7275 MORNING -0.2218
-2.4265 MUSIC -0.2218
-2.7275 NIGHT -0.2218
-2.7275 NOON -0.2218
-2.7275 NOT -0.2218
-2.7275 NOTES -0.2218
-2.7275 OFF -0.2218
-2.7275 ON -0.2218
-2.7275 ONE -0.2218
-2.7275 OPEN -0.2218
-2.7275 PARENTHESIS -0.2218
-2.7275 PLAY -0.2218
-2.7275 RANDOM -0.2218
-2.7275 REAL -0.2218
-2.7275 RIGHT -0.2218
-2.7275 ROULETTE -0.2218
-2.7275 RUSSIAN -0.2218
-2.7275 SAY -0.2218
-2.7275 SCREENSHOT -0.2218
-2.7275 SEARCH -0.2218
-2.7275 SEND -0.2218
-2.7275 SET -0.2218
-2.7275 SHOW -0.2218
-2.7275 SLEEP -0.2218
-2.7275 SPOTIFY -0.2218
-2.7275 SUNRISE -0.2218
-2.7275 SUNSET -0.2218
-2.7275 SURPRISE -0.2218
-2.7275 TEN -0.2218
-2.7275 TERM -0.2218
-2.7275 TERMINAL -0.2218
-2.7275 THE -0.2218
-2.7275 THIRTY -0.2218
-2.7275 TIME -0.2218
-2.7275 TO -0.2218
-2.7275 TWENTY -0.2218
-2.7275 UP -0.2218
-2.7275 USER -0.2218
-2.7275 VOLUME -0.2218
-2.7275 WEATHER -0.2218
-2.7275 WEB -0.2218
-2.7275 WHAT -0.2218
-2.7275 WHERE -0.2218
-2.7275 WHO -0.2218
-2.7275 YOUTUBE -0.2218
-2.7275 ZEPPELIN -0.2218

\2-grams:
-2.2504 <s> ABRAHAM 0.0000
-2.2504 <s> AFTERNOON 0.0000
-2.2504 <s> ALARM 0.0000
-2.2504 <s> ALEXA 0.0000
-2.2504 <s> APPS 0.0000
-2.2504 <s> ART 0.0000
-2.2504 <s> ATOM 0.0000
-2.2504 <s> B 0.0000
-2.2504 <s> CAPTURE 0.0000
-2.2504 <s> CHECK 0.0000
-2.2504 <s> COLORS 0.0000
-2.2504 <s> CONNECTED 0.0000
-2.2504 <s> CORTANA 0.0000
-2.2504 <s> DESKTOP 0.0000
-2.2504 <s> DO 0.0000
-2.2504 <s> DOWN 0.0000
-2.2504 <s> E-MAIL 0.0000
-2.2504 <s> ECHO 0.0000
-2.2504 <s> EVENING 0.0000
-2.2504 <s> FILES 0.0000
-2.2504 <s> FIND 0.0000
-2.2504 <s> FIVE 0.0000
-2.2504 <s> FOR 0.0000
-2.2504 <s> FRANZ 0.0000
-2.2504 <s> GO 0.0000
-2.2504 <s> GOODBYE 0.0000
-2.2504 <s> GOOGLE 0.0000
-2.2504 <s> HIDDEN 0.0000
-2.2504 <s> HISTORY 0.0000
-2.2504 <s> HOUR 0.0000
-2.2504 <s> IN 0.0000
-2.2504 <s> INVERT 0.0000
-1.9494 <s> IS 0.0000
-2.2504 <s> KEVIN 0.0000
-2.2504 <s> KIFT 0.0000
-2.2504 <s> LED 0.0000
-2.2504 <s> LEFT 0.0000
-2.2504 <s> LIGHTS 0.0000
-2.2504 <s> ME 0.0000
-2.2504 <s> MINUTES 0.0000
-2.2504 <s> MISTER 0.0000
-2.2504 <s> MORNING 0.0000
-1.9494 <s> MUSIC 0.0000
-2.2504 <s> NIGHT 0.0000
-2.2504 <s> NOON 0.0000
-2.2504 <s> NOT 0.0000
-2.2504 <s> NOTES 0.0000
-2.2504 <s> OFF 0.0000
-2.2504 <s> ON 0.0000
-2.2504 <s> ONE 0.0000
-2.2504 <s> OPEN 0.0000
-2.2504 <s> PARENTHESIS 0.0000
-2.2504 <s> PLAY 0.0000
-2.2504 <s> RANDOM 0.0000
-2.2504 <s> REAL 0.0000
-2.2504 <s> RIGHT 0.0000
-2.2504 <s> ROULETTE 0.0000
-2.2504 <s> RUSSIAN 0.0000
-2.2504 <s> SAY 0.0000
-2.2504 <s> SCREENSHOT 0.0000
-2.2504 <s> SEARCH 0.0000
-2.2504 <s> SEND 0.0000
-2.2504 <s> SET 0.0000
-2.2504 <s> SHOW 0.0000
-2.2504 <s> SLEEP 0.0000
-2.2504 <s> SPOTIFY 0.0000
-2.2504 <s> SUNRISE 0.0000
-2.2504 <s> SUNSET 0.0000
-2.2504 <s> SURPRISE 0.0000
-2.2504 <s> TEN 0.0000
-2.2504 <s> TERM 0.0000
-2.2504 <s> TERMINAL 0.0000
-2.2504 <s> THE 0.0000
-2.2504 <s> THIRTY 0.0000
-2.2504 <s> TIME 0.0000
-2.2504 <s> TO 0.0000
-2.2504 <s> TWENTY 0.0000
-2.2504 <s> UP 0.0000
-2.2504 <s> USER 0.0000
-2.2504 <s> VOLUME 0.0000
-2.2504 <s> WEATHER 0.0000
-2.2504 <s> WEB 0.0000
-2.2504 <s> WHAT 0.0000
-2.2504 <s> WHERE 0.0000
-2.2504 <s> WHO 0.0000
-2.2504 <s> YOUTUBE 0.0000
-2.2504 <s> ZEPPELIN 0.0000
-0.3010 ABRAHAM </s> -0.3010
-0.3010 AFTERNOON </s> -0.3010
-0.3010 ALARM </s> -0.3010
-0.3010 ALEXA </s> -0.3010
-0.3010 APPS </s> -0.3010
-0.3010 ART </s> -0.3010
-0.3010 ATOM </s> -0.3010
-0.3010 B </s> -0.3010
-0.3010 CAPTURE </s> -0.3010
-0.3010 CHECK </s> -0.3010
-0.3010 COLORS </s> -0.3010
-0.3010 CONNECTED </s> -0.3010
-0.3010 CORTANA </s> -0.3010
-0.3010 DESKTOP </s> -0.3010
-0.3010 DO </s> -0.3010
-0.3010 DOWN </s> -0.3010
-0.3010 E-MAIL </s> -0.3010
-0.3010 ECHO </s> -0.3010
-0.3010 EVENING </s> -0.3010
-0.3010 FILES </s> -0.3010
-0.3010 FIND </s> -0.3010
-0.3010 FIVE </s> -0.3010
-0.3010 FOR </s> -0.3010
-0.3010 FRANZ </s> -0.3010
-0.3010 GO </s> -0.3010
-0.3010 GOODBYE </s> -0.3010
-0.3010 GOOGLE </s> -0.3010
-0.3010 HIDDEN </s> -0.3010
-0.3010 HISTORY </s> -0.3010
-0.3010 HOUR </s> -0.3010
-0.3010 IN </s> -0.3010
-0.3010 INVERT </s> -0.3010
-0.3010 IS </s> -0.3010
-0.3010 KEVIN </s> -0.3010
-0.3010 KIFT </s> -0.3010
-0.3010 LED </s> -0.3010
-0.3010 LEFT </s> -0.3010
-0.3010 LIGHTS </s> -0.3010
-0.3010 ME </s> -0.3010
-0.3010 MINUTES </s> -0.3010
-0.3010 MISTER </s> -0.3010
-0.3010 MORNING </s> -0.3010
-0.3010 MUSIC </s> -0.3010
-0.3010 NIGHT </s> -0.3010
-0.3010 NOON </s> -0.3010
-0.3010 NOT </s> -0.3010
-0.3010 NOTES </s> -0.3010
-0.3010 OFF </s> -0.3010
-0.3010 ON </s> -0.3010
-0.3010 ONE </s> -0.3010
-0.3010 OPEN </s> -0.3010
-0.3010 PARENTHESIS </s> -0.3010
-0.3010 PLAY </s> -0.3010
-0.3010 RANDOM </s> -0.3010
-0.3010 REAL </s> -0.3010
-0.3010 RIGHT </s> -0.3010
-0.3010 ROULETTE </s> -0.3010
-0.3010 RUSSIAN </s> -0.3010
-0.3010 SAY </s> -0.3010
-0.3010 SCREENSHOT </s> -0.3010
-0.3010 SEARCH </s> -0.3010
-0.3010 SEND </s> -0.3010
-0.3010 SET </s> -0.3010
-0.3010 SHOW </s> -0.3010
-0.3010 SLEEP </s> -0.3010
-0.3010 SPOTIFY </s> -0.3010
-0.3010 SUNRISE </s> -0.3010
-0.3010 SUNSET </s> -0.3010
-0.3010 SURPRISE </s> -0.3010
-0.3010 TEN </s> -0.3010
-0.3010 TERM </s> -0.3010
-0.3010 TERMINAL </s> -0.3010
-0.3010 THE </s> -0.3010
-0.3010 THIRTY </s> -0.3010
-0.3010 TIME </s> -0.3010
-0.3010 TO </s> -0.3010
-0.3010 TWENTY </s> -0.3010
-0.3010 UP </s> -0.3010
-0.3010 USER </s> -0.3010
-0.3010 VOLUME </s> -0.3010
-0.3010 WEATHER </s> -0.3010
-0.3010 WEB </s> -0.3010
-0.3010 WHAT </s> -0.3010
-0.3010 WHERE </s> -0.3010
-0.3010 WHO </s> -0.3010
-0.3010 YOUTUBE </s> -0.3010
-0.3010 ZEPPELIN </s> -0.3010

\3-grams:
-0.3010 <s> ABRAHAM </s>
-0.3010 <s> AFTERNOON </s>
-0.3010 <s> ALARM </s>
-0.3010 <s> ALEXA </s>
-0.3010 <s> APPS </s>
-0.3010 <s> ART </s>
-0.3010 <s> ATOM </s>
-0.3010 <s> B </s>
-0.3010 <s> CAPTURE </s>
-0.3010 <s> CHECK </s>
-0.3010 <s> COLORS </s>
-0.3010 <s> CONNECTED </s>
-0.3010 <s> CORTANA </s>
-0.3010 <s> DESKTOP </s>
-0.3010 <s> DO </s>
-0.3010 <s> DOWN </s>
-0.3010 <s> E-MAIL </s>
-0.3010 <s> ECHO </s>
-0.3010 <s> EVENING </s>
-0.3010 <s> FILES </s>
-0.3010 <s> FIND </s>
-0.3010 <s> FIVE </s>
-0.3010 <s> FOR </s>
-0.3010 <s> FRANZ </s>
-0.3010 <s> GO </s>
-0.3010 <s> GOODBYE </s>
-0.3010 <s> GOOGLE </s>
-0.3010 <s> HIDDEN </s>
-0.3010 <s> HISTORY </s>
-0.3010 <s> HOUR </s>
-0.3010 <s> IN </s>
-0.3010 <s> INVERT </s>
-0.3010 <s> IS </s>
-0.3010 <s> KEVIN </s>
-0.3010 <s> KIFT </s>
-0.3010 <s> LED </s>
-0.3010 <s> LEFT </s>
-0.3010 <s> LIGHTS </s>
-0.3010 <s> ME </s>
-0.3010 <s> MINUTES </s>
-0.3010 <s> MISTER </s>
-0.3010 <s> MORNING </s>
-0.3010 <s> MUSIC </s>
-0.3010 <s> NIGHT </s>
-0.3010 <s> NOON </s>
-0.3010 <s> NOT </s>
-0.3010 <s> NOTES </s>
-0.3010 <s> OFF </s>
-0.3010 <s> ON </s>
-0.3010 <s> ONE </s>
-0.3010 <s> OPEN </s>
-0.3010 <s> PARENTHESIS </s>
-0.3010 <s> PLAY </s>
-0.3010 <s> RANDOM </s>
-0.3010 <s> REAL </s>
-0.3010 <s> RIGHT </s>
-0.3010 <s> ROULETTE </s>
-0.3010 <s> RUSSIAN </s>
-0.3010 <s> SAY </s>
-0.3010 <s> SCREENSHOT </s>
-0.3010 <s> SEARCH </s>
-0.3010 <s> SEND </s>
-0.3010 <s> SET </s>
-0.3010 <s> SHOW </s>
-0.3010 <s> SLEEP </s>
-0.3010 <s> SPOTIFY </s>
-0.3010 <s> SUNRISE </s>
-0.3010 <s> SUNSET </s>
-0.3010 <s> SURPRISE </s>
-0.3010 <s> TEN </s>
-0.3010 <s> TERM </s>
-0.3010 <s> TERMINAL </s>
-0.3010 <s> THE </s>
-0.3010 <s> THIRTY </s>
-0.3010 <s> TIME </s>
-0.3010 <s> TO </s>
-0.3010 <s> TWENTY </s>
-0.3010 <s> UP </s>
-0.3010 <s> USER </s>
-0.3010 <s> VOLUME </s>
-0.3010 <s> WEATHER </s>
-0.3010 <s> WEB </s>
-0.3010 <s> WHAT </s>
-0.3010 <s> WHERE </s>
-0.3010 <s> WHO </s>
-0.3010 <s> YOUTUBE </s>
-0.3010 <s> ZEPPELIN </s>

\end\
